// Auto-generated DecisionTreeRegressor predictor (127 nodes, max_depth 6)
// Trained on CCPP dataset (9568 samples, 2006-2011)

const TREE = {
  "n_nodes":127,"children_left":[1,2,3,4,5,6,-1,-1,9,-1,-1,12,13,-1,-1,16,-1,-1,19,20,21,-1,-1,24,-1,-1,27,28,-1,-1,31,-1,-1,34,35,36,37,-1,-1,40,-1,-1,43,44,-1,-1,47,-1,-1,50,51,52,-1,-1,55,-1,-1,58,59,-1,-1,62,-1,-1,65,66,67,68,69,-1,-1,72,-1,-1,75,76,-1,-1,79,-1,-1,82,83,84,-1,-1,87,-1,-1,90,91,-1,-1,94,-1,-1,97,98,99,100,-1,-1,103,-1,-1,106,107,-1,-1,110,-1,-1,113,114,115,-1,-1,118,-1,-1,121,122,-1,-1,125,-1,-1],
  "children_right":[64,33,18,11,8,7,-1,-1,10,-1,-1,15,14,-1,-1,17,-1,-1,26,23,22,-1,-1,25,-1,-1,30,29,-1,-1,32,-1,-1,49,42,39,38,-1,-1,41,-1,-1,46,45,-1,-1,48,-1,-1,57,54,53,-1,-1,56,-1,-1,61,60,-1,-1,63,-1,-1,96,81,74,71,70,-1,-1,73,-1,-1,78,77,-1,-1,80,-1,-1,89,86,85,-1,-1,88,-1,-1,93,92,-1,-1,95,-1,-1,112,105,102,101,-1,-1,104,-1,-1,109,108,-1,-1,111,-1,-1,120,117,116,-1,-1,119,-1,-1,124,123,-1,-1,126,-1,-1],
  "feature":[0,0,0,0,3,1,-2,-2,0,-2,-2,3,0,-2,-2,2,-2,-2,3,0,1,-2,-2,3,-2,-2,0,3,-2,-2,1,-2,-2,0,0,1,0,-2,-2,1,-2,-2,1,1,-2,-2,1,-2,-2,1,0,2,-2,-2,1,-2,-2,1,2,-2,-2,0,-2,-2,0,1,1,2,0,-2,-2,3,-2,-2,2,0,-2,-2,0,-2,-2,0,1,3,-2,-2,3,-2,-2,3,2,-2,-2,1,-2,-2,1,0,1,2,-2,-2,2,-2,-2,2,1,-2,-2,3,-2,-2,0,3,1,-2,-2,3,-2,-2,2,1,-2,-2,0,-2,-2],
  "threshold":[17.895,11.685,8.655,7.04,67.835,39.775,-2,-2,4.775,-2,-2,90.875,7.065,-2,-2,1016.035,-2,-2,92.97,10.905,48.86,-2,-2,90.27,-2,-2,9.72,98.315,-2,-2,40.65,-2,-2,14.905,13.605,43.75,13.46,-2,-2,73.525,-2,-2,60.77,58.78,-2,-2,74.955,-2,-2,69.91,7.1,989.625,-2,-2,68.435,-2,-2,44.545,1001.95,-2,-2,9.705,-2,-2,19.845,59.975,57.61,1016.07,27.455,-2,-2,87.9,-2,-2,991.745,9.37,-2,-2,10.645,-2,-2,29.405,74.615,96.9,-2,-2,64.57,-2,-2,52.115,995.065,-2,-2,40.86,-2,-2,72.405,24.82,42.255,1012.575,-2,-2,996.93,-2,-2,1008.25,72.75,-2,-2,93.2,-2,-2,16.495,44.875,56.05,-2,-2,72.72,-2,-2,1015.845,46.5,-2,-2,30.085,-2,-2],
  "value":[486.547,456.313,453.736,451.16,464.453,487.127,485.816,489.271,477.424,493.52,466.462,448.853,446.309,444.555,447.79,450.756,449.399,453.218,449.431,442.305,431.868,434.962,429.808,447.049,448.482,445.871,467.789,464.185,479.201,463.443,487.968,487.428,489.674,472.752,460.002,454.899,448.452,446.229,449.507,463.806,461.205,468.321,456.207,454.947,459.648,461.668,460.373,463.73,457.321,460.082,455.1,444.528,451.35,440.14,457.349,458.69,455.903,455.886,453.112,458.013,449.813,453.605,450.316,455.664,463.438,450.636,443.403,450.372,440.956,438.67,442.061,452.04,453.428,451.105,442.93,440.541,444.067,439.38,449.539,447.706,450.175,469.856,463.374,459.06,484.42,457.983,472.745,470.095,475.258,473.93,471.0,475.176,471.82,477.053,476.997,474.14,471.331,468.041,464.862,458.319,477.656,460.857,457.281,461.564,468.148,465.358,470.088,472.1,471.24,476.485,484.962,480.625,475.324,478.747,482.642,486.701,490.466],
  "model_type":"DecisionTreeRegressor"
};

export function predictEnergy(features: number[]): number {
  const { children_left, children_right, feature, threshold, value } = TREE;
  let node = 0;
  while (children_left[node] !== -1) {
    if (features[feature[node]] <= threshold[node]) {
      node = children_left[node];
    } else {
      node = children_right[node];
    }
  }
  return value[node];
}

// Quick test
if (typeof window !== "undefined") {
  (window as any).__predictEnergy = predictEnergy;
}
