// Auto-generated DecisionTreeRegressor predictor (127 nodes, max_depth 6)
// Trained on CCPP dataset (9568 samples, 2006-2011)
// Extracted from sklearn DecisionTreeRegressor v0.23.1

const TREE = {"n_nodes":127,"children_left":[1,2,3,4,5,6,-1,-1,9,-1,-1,12,13,-1,-1,16,-1,-1,19,20,21,-1,-1,24,-1,-1,27,28,-1,-1,31,-1,-1,34,35,36,37,-1,-1,40,-1,-1,43,44,-1,-1,47,-1,-1,50,51,52,-1,-1,55,-1,-1,58,59,-1,-1,62,-1,-1,65,66,67,68,69,-1,-1,72,-1,-1,75,76,-1,-1,79,-1,-1,82,83,84,-1,-1,87,-1,-1,90,91,-1,-1,94,-1,-1,97,98,99,100,-1,-1,103,-1,-1,106,107,-1,-1,110,-1,-1,113,114,115,-1,-1,118,-1,-1,121,122,-1,-1,125,-1,-1],"children_right":[64,33,18,11,8,7,-1,-1,10,-1,-1,15,14,-1,-1,17,-1,-1,26,23,22,-1,-1,25,-1,-1,30,29,-1,-1,32,-1,-1,49,42,39,38,-1,-1,41,-1,-1,46,45,-1,-1,48,-1,-1,57,54,53,-1,-1,56,-1,-1,61,60,-1,-1,63,-1,-1,96,81,74,71,70,-1,-1,73,-1,-1,78,77,-1,-1,80,-1,-1,89,86,85,-1,-1,88,-1,-1,93,92,-1,-1,95,-1,-1,112,105,102,101,-1,-1,104,-1,-1,109,108,-1,-1,111,-1,-1,120,117,116,-1,-1,119,-1,-1,124,123,-1,-1,126,-1,-1],"feature":[0,0,0,0,3,1,-2,-2,0,-2,-2,3,0,-2,-2,2,-2,-2,3,0,1,-2,-2,3,-2,-2,0,3,-2,-2,1,-2,-2,0,0,1,0,-2,-2,1,-2,-2,1,1,-2,-2,1,-2,-2,1,0,2,-2,-2,1,-2,-2,1,2,-2,-2,0,-2,-2,0,1,1,2,0,-2,-2,3,-2,-2,2,0,-2,-2,0,-2,-2,0,1,3,-2,-2,3,-2,-2,3,2,-2,-2,1,-2,-2,1,0,1,2,-2,-2,2,-2,-2,2,1,-2,-2,3,-2,-2,0,3,1,-2,-2,3,-2,-2,2,1,-2,-2,0,-2,-2],"threshold":[17.895,11.685,8.655,7.04,67.834999,39.775,-2,-2,4.775,-2,-2,90.875,7.065,-2,-2,1016.034973,-2,-2,92.970001,10.905,48.860001,-2,-2,90.27,-2,-2,9.72,98.315002,-2,-2,40.65,-2,-2,14.905,13.605,41.459999,12.785,-2,-2,45.689999,-2,-2,45.709999,39.92,-2,-2,56.25,-2,-2,45.004999,15.455,1016.470001,-2,-2,43.715,-2,-2,55.764999,1010.195007,-2,-2,15.755,-2,-2,23.065,56.75,44.869999,1011.674988,20.975,-2,-2,68.32,-2,-2,1011.485016,20.315,-2,-2,18.52,-2,-2,20.825,67.09,90.23,-2,-2,75.23,-2,-2,79.150002,1010.789978,-2,-2,64.724998,-2,-2,66.209999,26.464999,55.535,1012.130005,-2,-2,1010.345001,-2,-2,1007.154999,64.825001,-2,-2,48.58,-2,-2,25.415,59.045,68.375,-2,-2,79.09,-2,-2,1008.785004,73.824997,-2,-2,30.685,-2,-2],"value":[454.3031,471.5938,479.6508,483.7804,485.8297,490.2965,484.3889,494.0943,485.4754,488.4434,484.9014,481.6495,482.5,472.3833,482.6265,478.086,481.4157,475.898,476.3276,477.1933,478.0641,478.1756,470.4657,474.3456,474.6689,471.4793,472.1511,476.1039,477.4284,469.8125,471.3093,473.0241,470.2599,465.3398,468.2385,470.1187,471.9038,473.0057,470.363,468.1757,468.8178,465.0236,466.1549,466.7073,468.4176,466.2304,462.7269,463.3743,457.8713,461.2989,463.3755,465.122,465.9955,463.1733,462.7521,463.2979,461.3116,457.5025,458.7385,455.1268,459.4426,454.2408,457.9125,453.7819,442.2039,450.3289,454.5544,458.7937,456.0185,458.1886,449.248,461.2368,462.3955,458.1588,452.4726,448.8821,451.3613,446.835,455.3421,458.9055,454.7003,447.161,450.1972,450.8613,451.2575,446.756,446.768,450.0177,445.7621,445.2965,447.47,443.1127,448.6548,442.8907,444.429,440.516,437.9013,442.7044,444.2155,446.6348,443.7146,451.4067,443.2774,440.8963,443.9382,439.8057,436.6544,438.0894,429.7983,440.9018,442.4366,440.3507,434.7065,438.5264,443.7821,440.642,445.5267,438.0486,439.3205,437.0296,433.8102,432.7245,432.289,434.2767,434.8572,435.5254,432.5735]};

export function predictEnergy(features: number[]): number {
  const { children_left, children_right, feature, threshold, value } = TREE;
  let node = 0;
  while (children_left[node] !== -1) {
    if (features[feature[node]] <= threshold[node]) {
      node = children_left[node];
    } else {
      node = children_right[node];
    }
  }
  return value[node];
}
